Language model created by QuickLM on Sun Jan 29 19:28:11 EST 2017
Copyright (c) 1996-2010 Carnegie Mellon University and Alexander I. Rudnicky

The model is in standard ARPA format, designed by Doug Paul while he was at MITRE.

The code that was used to produce this language model is available in Open Source.
Please visit http://www.speech.cs.cmu.edu/tools/ for more information

The (fixed) discount mass is 0.5. The backoffs are computed using the ratio method.
This model based on a corpus of 52 sentences and 62 words

\data\
ngram 1=62
ngram 2=112
ngram 3=62

\1-grams:
-0.8051 </s> -0.3010
-0.8051 <s> -0.2270
-2.5211 ACCIO -0.2270
-2.5211 AGUAMENTI -0.2270
-2.5211 ALARTE -0.2270
-2.5211 ALOHOMORA -0.2270
-2.5211 ANAPNEO -0.2270
-2.5211 APERIO -0.2270
-2.5211 APPARATE -0.2270
-2.5211 ASCENDARE -0.2270
-2.5211 ASCENDIO -0.2270
-2.5211 AVADA -0.2997
-2.5211 AVIFORS -0.2270
-2.5211 AVIS -0.2270
-2.5211 BAUBILIOUS -0.2270
-2.5211 BESTIO -0.2984
-2.5211 BOMBARDA -0.2270
-2.5211 CISTEM -0.2997
-2.5211 COLLOPORTUS -0.2270
-2.5211 CONFRINGO -0.2270
-2.5211 CRUCIO -0.2270
-2.5211 DEFODIO -0.2270
-2.5211 DEPULSO -0.2270
-2.5211 DIFFINDO -0.2270
-2.5211 DISILLUSIO -0.2270
-2.5211 DURO -0.2270
-2.5211 EPISKEY -0.2270
-2.5211 EVANESCO -0.2270
-2.5211 EXPECTO -0.2997
-2.5211 EXPELLIARMUS -0.2270
-2.5211 EXPULSO -0.2270
-2.5211 FERA -0.2997
-2.5211 FINITE -0.2997
-2.5211 FLIPENDO -0.2270
-2.5211 FUMOS -0.2270
-2.5211 GLISSEO -0.2270
-2.5211 HERBIVICUS -0.2270
-2.5211 HOMENUM -0.2984
-2.5211 IMPERIO -0.2270
-2.5211 INCANTATEM -0.2270
-2.5211 INCENDIO -0.2270
-2.5211 KEDAVRA -0.2270
-2.5211 LEVIOSA -0.2270
-2.2201 LUMOS -0.2255
-2.5211 MAXIMA -0.2270
-2.5211 MELOFORS -0.2270
-2.5211 MORSMORDRE -0.2270
-2.5211 MULTICOLORFORS -0.2270
-2.5211 NOX -0.2270
-2.5211 OBLIVIATE -0.2270
-2.5211 OBSCURO -0.2270
-2.5211 ORCHIDEOUS -0.2270
-2.5211 PATRONUM -0.2270
-2.5211 PETRIFICUS -0.2997
-2.5211 PORTUS -0.2270
-2.5211 PROTEGO -0.2270
-2.5211 REFULGENS -0.2270
-2.2201 REVELIO -0.2270
-2.5211 STUPEFY -0.2270
-2.5211 TOTALUS -0.2270
-2.5211 VERTO -0.2270
-2.5211 WINGARDIUM -0.2997

\2-grams:
-2.0170 <s> ACCIO 0.0000
-2.0170 <s> AGUAMENTI 0.0000
-2.0170 <s> ALARTE 0.0000
-2.0170 <s> ALOHOMORA 0.0000
-2.0170 <s> ANAPNEO 0.0000
-2.0170 <s> APPARATE 0.0000
-2.0170 <s> ASCENDARE 0.0000
-2.0170 <s> ASCENDIO 0.0000
-2.0170 <s> AVADA 0.0000
-2.0170 <s> AVIFORS 0.0000
-2.0170 <s> AVIS 0.0000
-2.0170 <s> BAUBILIOUS 0.0000
-2.0170 <s> BESTIO 0.0000
-2.0170 <s> BOMBARDA 0.0000
-2.0170 <s> CISTEM 0.0000
-2.0170 <s> COLLOPORTUS 0.0000
-2.0170 <s> CONFRINGO 0.0000
-2.0170 <s> CRUCIO 0.0000
-2.0170 <s> DEFODIO 0.0000
-2.0170 <s> DEPULSO 0.0000
-2.0170 <s> DIFFINDO 0.0000
-2.0170 <s> DISILLUSIO 0.0000
-2.0170 <s> DURO 0.0000
-2.0170 <s> EPISKEY 0.0000
-2.0170 <s> EVANESCO 0.0000
-2.0170 <s> EXPECTO 0.0000
-2.0170 <s> EXPELLIARMUS 0.0000
-2.0170 <s> EXPULSO 0.0000
-2.0170 <s> FERA 0.0000
-2.0170 <s> FINITE 0.0000
-2.0170 <s> FLIPENDO 0.0000
-2.0170 <s> FUMOS 0.0000
-2.0170 <s> GLISSEO 0.0000
-2.0170 <s> HERBIVICUS 0.0000
-2.0170 <s> HOMENUM 0.0000
-2.0170 <s> IMPERIO 0.0000
-2.0170 <s> INCENDIO 0.0000
-1.7160 <s> LUMOS 0.0000
-2.0170 <s> MELOFORS 0.0000
-2.0170 <s> MORSMORDRE 0.0000
-2.0170 <s> MULTICOLORFORS 0.0000
-2.0170 <s> NOX 0.0000
-2.0170 <s> OBLIVIATE 0.0000
-2.0170 <s> OBSCURO 0.0000
-2.0170 <s> ORCHIDEOUS 0.0000
-2.0170 <s> PETRIFICUS 0.0000
-2.0170 <s> PORTUS 0.0000
-2.0170 <s> PROTEGO 0.0000
-2.0170 <s> REFULGENS 0.0000
-2.0170 <s> STUPEFY 0.0000
-2.0170 <s> WINGARDIUM 0.0000
-0.3010 ACCIO </s> -0.3010
-0.3010 AGUAMENTI </s> -0.3010
-0.3010 ALARTE </s> -0.3010
-0.3010 ALOHOMORA </s> -0.3010
-0.3010 ANAPNEO </s> -0.3010
-0.3010 APERIO </s> -0.3010
-0.3010 APPARATE </s> -0.3010
-0.3010 ASCENDARE </s> -0.3010
-0.3010 ASCENDIO </s> -0.3010
-0.3010 AVADA KEDAVRA 0.0000
-0.3010 AVIFORS </s> -0.3010
-0.3010 AVIS </s> -0.3010
-0.3010 BAUBILIOUS </s> -0.3010
-0.3010 BESTIO REVELIO 0.0000
-0.3010 BOMBARDA </s> -0.3010
-0.3010 CISTEM APERIO 0.0000
-0.3010 COLLOPORTUS </s> -0.3010
-0.3010 CONFRINGO </s> -0.3010
-0.3010 CRUCIO </s> -0.3010
-0.3010 DEFODIO </s> -0.3010
-0.3010 DEPULSO </s> -0.3010
-0.3010 DIFFINDO </s> -0.3010
-0.3010 DISILLUSIO </s> -0.3010
-0.3010 DURO </s> -0.3010
-0.3010 EPISKEY </s> -0.3010
-0.3010 EVANESCO </s> -0.3010
-0.3010 EXPECTO PATRONUM 0.0000
-0.3010 EXPELLIARMUS </s> -0.3010
-0.3010 EXPULSO </s> -0.3010
-0.3010 FERA VERTO 0.0000
-0.3010 FINITE INCANTATEM 0.0000
-0.3010 FLIPENDO </s> -0.3010
-0.3010 FUMOS </s> -0.3010
-0.3010 GLISSEO </s> -0.3010
-0.3010 HERBIVICUS </s> -0.3010
-0.3010 HOMENUM REVELIO 0.0000
-0.3010 IMPERIO </s> -0.3010
-0.3010 INCANTATEM </s> -0.3010
-0.3010 INCENDIO </s> -0.3010
-0.3010 KEDAVRA </s> -0.3010
-0.3010 LEVIOSA </s> -0.3010
-0.6021 LUMOS </s> -0.3010
-0.6021 LUMOS MAXIMA 0.0000
-0.3010 MAXIMA </s> -0.3010
-0.3010 MELOFORS </s> -0.3010
-0.3010 MORSMORDRE </s> -0.3010
-0.3010 MULTICOLORFORS </s> -0.3010
-0.3010 NOX </s> -0.3010
-0.3010 OBLIVIATE </s> -0.3010
-0.3010 OBSCURO </s> -0.3010
-0.3010 ORCHIDEOUS </s> -0.3010
-0.3010 PATRONUM </s> -0.3010
-0.3010 PETRIFICUS TOTALUS 0.0000
-0.3010 PORTUS </s> -0.3010
-0.3010 PROTEGO </s> -0.3010
-0.3010 REFULGENS </s> -0.3010
-0.3010 REVELIO </s> -0.3010
-0.3010 STUPEFY </s> -0.3010
-0.3010 TOTALUS </s> -0.3010
-0.3010 VERTO </s> -0.3010
-0.3010 WINGARDIUM LEVIOSA 0.0000

\3-grams:
-0.3010 <s> ACCIO </s>
-0.3010 <s> AGUAMENTI </s>
-0.3010 <s> ALARTE </s>
-0.3010 <s> ALOHOMORA </s>
-0.3010 <s> ANAPNEO </s>
-0.3010 <s> APPARATE </s>
-0.3010 <s> ASCENDARE </s>
-0.3010 <s> ASCENDIO </s>
-0.3010 <s> AVADA KEDAVRA
-0.3010 <s> AVIFORS </s>
-0.3010 <s> AVIS </s>
-0.3010 <s> BAUBILIOUS </s>
-0.3010 <s> BESTIO REVELIO
-0.3010 <s> BOMBARDA </s>
-0.3010 <s> CISTEM APERIO
-0.3010 <s> COLLOPORTUS </s>
-0.3010 <s> CONFRINGO </s>
-0.3010 <s> CRUCIO </s>
-0.3010 <s> DEFODIO </s>
-0.3010 <s> DEPULSO </s>
-0.3010 <s> DIFFINDO </s>
-0.3010 <s> DISILLUSIO </s>
-0.3010 <s> DURO </s>
-0.3010 <s> EPISKEY </s>
-0.3010 <s> EVANESCO </s>
-0.3010 <s> EXPECTO PATRONUM
-0.3010 <s> EXPELLIARMUS </s>
-0.3010 <s> EXPULSO </s>
-0.3010 <s> FERA VERTO
-0.3010 <s> FINITE INCANTATEM
-0.3010 <s> FLIPENDO </s>
-0.3010 <s> FUMOS </s>
-0.3010 <s> GLISSEO </s>
-0.3010 <s> HERBIVICUS </s>
-0.3010 <s> HOMENUM REVELIO
-0.3010 <s> IMPERIO </s>
-0.3010 <s> INCENDIO </s>
-0.6021 <s> LUMOS </s>
-0.6021 <s> LUMOS MAXIMA
-0.3010 <s> MELOFORS </s>
-0.3010 <s> MORSMORDRE </s>
-0.3010 <s> MULTICOLORFORS </s>
-0.3010 <s> NOX </s>
-0.3010 <s> OBLIVIATE </s>
-0.3010 <s> OBSCURO </s>
-0.3010 <s> ORCHIDEOUS </s>
-0.3010 <s> PETRIFICUS TOTALUS
-0.3010 <s> PORTUS </s>
-0.3010 <s> PROTEGO </s>
-0.3010 <s> REFULGENS </s>
-0.3010 <s> STUPEFY </s>
-0.3010 <s> WINGARDIUM LEVIOSA
-0.3010 AVADA KEDAVRA </s>
-0.3010 BESTIO REVELIO </s>
-0.3010 CISTEM APERIO </s>
-0.3010 EXPECTO PATRONUM </s>
-0.3010 FERA VERTO </s>
-0.3010 FINITE INCANTATEM </s>
-0.3010 HOMENUM REVELIO </s>
-0.3010 LUMOS MAXIMA </s>
-0.3010 PETRIFICUS TOTALUS </s>
-0.3010 WINGARDIUM LEVIOSA </s>

\end\
